Vector len = 42, Vector num = 42, total count of elements = 1764
57154690088960.000000 43463533920256.000000 52287598755840.000000 55008649281536.000000 55311708717056.000000 46549623111680.000000 72423802142720.000000 74924051922944.000000 74155412160512.000000 75803933016064.000000 69131378360320.000000 76653447348224.000000 73558025830400.000000 70650416857088.000000 72137817718784.000000 72758574710784.000000 70846701895680.000000 64976920248320.000000 71563768496128.000000 73947802501120.000000 73969654824960.000000 57254900400128.000000 58581361623040.000000 58827709874176.000000 67468714311680.000000 61800489943040.000000 59055854845952.000000 67908461920256.000000 37121029046272.000000 38384059809792.000000 50751942426624.000000 53719706107904.000000 50707440861184.000000 46348241993728.000000 43511592255488.000000 43825112285184.000000 78006471098368.000000 85851665072128.000000 75554355150848.000000 75342047870976.000000 74028727402496.000000 78736372269056.000000 
-3626817028096.000000 -2388366721024.000000 -3404998639616.000000 -3435435393024.000000 -3355742830592.000000 -2796831375360.000000 -4930562162688.000000 -4850799083520.000000 -5033850044416.000000 -4900393582592.000000 -4497144807424.000000 -4568191598592.000000 -4457960570880.000000 -4153016582144.000000 -4032789217280.000000 -4484232118272.000000 -4257780334592.000000 -3808173490176.000000 -4272648355840.000000 -4572071854080.000000 -4370135777280.000000 -3606733651968.000000 -3520588939264.000000 -3510797598720.000000 -4251637776384.000000 -3909471174656.000000 -3638471950336.000000 -4244989280256.000000 -2366629740544.000000 -2381143867392.000000 -2631487193088.000000 -2760689582080.000000 -2619648245760.000000 -2402462990336.000000 -2186332733440.000000 -2125177946112.000000 -4635558412288.000000 -5151514427392.000000 -4634896760832.000000 -4996046782464.000000 -4683720556544.000000 -4834426617856.000000 
9844598767616.000000 7793591975936.000000 9491800129536.000000 10178059567104.000000 10018665529344.000000 8203337728000.000000 13415249608704.000000 13813422227456.000000 13954751397888.000000 14089226027008.000000 12692762918912.000000 13876949155840.000000 13660485320704.000000 13154254848000.000000 13384353316864.000000 13431174332416.000000 13111188783104.000000 11597421477888.000000 13153009139712.000000 13437104029696.000000 13435616100352.000000 10282105569280.000000 10368997916672.000000 10326411051008.000000 12967508705280.000000 11803712028672.000000 11215051948032.000000 13104419176448.000000 7113923362816.000000 7128338137088.000000 8762446839808.000000 9458664079360.000000 8913181212672.000000 8240880943104.000000 7627095408640.000000 7740729065472.000000 14070714466304.000000 15478919528448.000000 13582446100480.000000 13837265797120.000000 13713111252992.000000 14260655620096.000000 
1495446323200.000000 1152035061760.000000 1281614675968.000000 915926220800.000000 1139837632512.000000 705213366272.000000 1878214443008.000000 2106589970432.000000 2045508714496.000000 2011749941248.000000 1754429259776.000000 2087487143936.000000 1931461525504.000000 1651885342720.000000 1758036623360.000000 2038994173952.000000 1886808965120.000000 2019506913280.000000 2519100817408.000000 2318319747072.000000 2599756759040.000000 1438185029632.000000 1434734034944.000000 1589286141952.000000 2324143013888.000000 2369584365568.000000 2118048284672.000000 2240143949824.000000 1132585680896.000000 1255363575808.000000 1554415484928.000000 1653671985152.000000 1437420224512.000000 1508728635392.000000 1384804646912.000000 1362028527616.000000 2212452368384.000000 2268284059648.000000 2048751960064.000000 1623250960384.000000 1652969177088.000000 2045907304448.000000 
-811427627008.000000 -401183506432.000000 -824909299712.000000 -667493728256.000000 -504740478976.000000 -641507721216.000000 -1080609406976.000000 -1138093326336.000000 -1105701634048.000000 -1259935367168.000000 -947321765888.000000 -1192628846592.000000 -1147234156544.000000 -954762330112.000000 -903825195008.000000 -1082035077120.000000 -1051302821888.000000 -1012044136448.000000 -762624737280.000000 -908559777792.000000 -849477566464.000000 -663887740928.000000 -784249323520.000000 -885909815296.000000 -1042624544768.000000 -994618638336.000000 -915950403584.000000 -1025078067200.000000 -318156046336.000000 -352648232960.000000 -447706333184.000000 -498990579712.000000 -584593571840.000000 -394731913216.000000 -288632373248.000000 -243540541440.000000 -1132462080000.000000 -1159405895680.000000 -1129379790848.000000 -1159729774592.000000 -874399268864.000000 -1142314893312.000000 
-673928314880.000000 -935209402368.000000 -867406118912.000000 -1046178758656.000000 -1170047893504.000000 -805453824000.000000 -1346217181184.000000 -1486154498048.000000 -1345085898752.000000 -1499237711872.000000 -1339564097536.000000 -1327068086272.000000 -1696384155648.000000 -1535532859392.000000 -1679450177536.000000 -1863090044928.000000 -1769001189376.000000 -978505564160.000000 -1410986278912.000000 -1621442953216.000000 -1487544909824.000000 -979262636032.000000 -1042175950848.000000 -718155546624.000000 -1599084298240.000000 -1431039246336.000000 -1332268236800.000000 -1704195522560.000000 -912634806272.000000 -991435161600.000000 -902790119424.000000 -1074609651712.000000 -837602574336.000000 -922515144704.000000 -716601425920.000000 -766858035200.000000 -1007470444544.000000 -1368918982656.000000 -1001341517824.000000 -1113036423168.000000 -1202147295232.000000 -1005380173824.000000 
2280067694592.000000 2168827674624.000000 2581555052544.000000 2264486117376.000000 2405181685760.000000 2019001237504.000000 3439516975104.000000 3934401855488.000000 3988998848512.000000 3930386595840.000000 3310553399296.000000 3939650502656.000000 4156111192064.000000 3820191219712.000000 3823501312000.000000 4709808078848.000000 4506899709952.000000 3155652247552.000000 4495032451072.000000 4221897277440.000000 4630528917504.000000 2388812627968.000000 2316825264128.000000 2679260053504.000000 4687951560704.000000 4288806912000.000000 4015188082688.000000 4547953033216.000000 2418121375744.000000 2627264577536.000000 2857657958400.000000 3153605951488.000000 2941183328256.000000 2657159217152.000000 2335180062720.000000 2351794225152.000000 3378485395456.000000 3779371204608.000000 3294567858176.000000 3464321826816.000000 3132099657728.000000 3476544815104.000000 
-2717520232448.000000 -2099124633600.000000 -2106570440704.000000 -1998704214016.000000 -2347421925376.000000 -2185664528384.000000 -3047751942144.000000 -3072329515008.000000 -2983400308736.000000 -3043562618880.000000 -2892581044224.000000 -3550624612352.000000 -3070885625856.000000 -2882025291776.000000 -2967460904960.000000 -3207898857472.000000 -3106445983744.000000 -3039300681728.000000 -3159879319552.000000 -3290630193152.000000 -3333641469952.000000 -2582337552384.000000 -2621786816512.000000 -2727717371904.000000 -2761076768768.000000 -2476345131008.000000 -2432418185216.000000 -2699829706752.000000 -1436574416896.000000 -1482535075840.000000 -2632199700480.000000 -2689268711424.000000 -2464069713920.000000 -2254090010624.000000 -2113050902528.000000 -2043801370624.000000 -3466947461120.000000 -3857651335168.000000 -3349732130816.000000 -3166503174144.000000 -3085669236736.000000 -3485602938880.000000 
-2751136268288.000000 -2045078405120.000000 -2447513747456.000000 -2813177102336.000000 -2832461463552.000000 -2177196359680.000000 -3498061070336.000000 -3596607553536.000000 -3448513495040.000000 -3579290058752.000000 -3334139805696.000000 -3554567258112.000000 -3597642498048.000000 -3575539826688.000000 -3676647981056.000000 -3254531129344.000000 -3087071969280.000000 -3041803108352.000000 -3380762378240.000000 -3657450389504.000000 -3508865859584.000000 -2945951465472.000000 -3073885863936.000000 -2685305618432.000000 -3002780876800.000000 -2903886266368.000000 -2935949885440.000000 -3107395469312.000000 -1988088561664.000000 -2028905562112.000000 -2670901329920.000000 -2910196334592.000000 -2787856613376.000000 -2616261083136.000000 -2476264914944.000000 -2606995865600.000000 -3854508490752.000000 -4249366036480.000000 -3783387250688.000000 -3833227116544.000000 -3810286108672.000000 -3851084103680.000000 
-1229835599872.000000 -733541629952.000000 -890429767680.000000 -1179079147520.000000 -943691857920.000000 -806879952896.000000 -1721671745536.000000 -1835700584448.000000 -1731074850816.000000 -1740874842112.000000 -1616478076928.000000 -1902487535616.000000 -2067093651456.000000 -1994496016384.000000 -1906157813760.000000 -1801447538688.000000 -1755942092800.000000 -2073525092352.000000 -2089164603392.000000 -2046886281216.000000 -1990678020096.000000 -1701277859840.000000 -1657718046720.000000 -1409367932928.000000 -1717213724672.000000 -1562983923712.000000 -1517026410496.000000 -1770060251136.000000 -1116968714240.000000 -1140631535616.000000 -1733537038336.000000 -1910633922560.000000 -1828118855680.000000 -1611144232960.000000 -1756422602752.000000 -1704995454976.000000 -2248843984896.000000 -2490439827456.000000 -2242003861504.000000 -2414155661312.000000 -2231660707840.000000 -2225988960256.000000 
2487847223296.000000 1821814685696.000000 2233265553408.000000 1400937644032.000000 1891771482112.000000 1744706732032.000000 2622458167296.000000 2842069041152.000000 2856895119360.000000 2824800305152.000000 2577802461184.000000 3212812484608.000000 2559590268928.000000 2317010337792.000000 2440463122432.000000 2807581900800.000000 2721171636224.000000 2622974328832.000000 3260288073728.000000 3036942172160.000000 3405808926720.000000 1945574178816.000000 2026895310848.000000 2537002893312.000000 2831702556672.000000 2563094609920.000000 2409954279424.000000 2732558647296.000000 1332973928448.000000 1458674728960.000000 2145776435200.000000 2256245620736.000000 2126876114944.000000 1878630203392.000000 1912932532224.000000 1874487672832.000000 3229177085952.000000 3361314963456.000000 3133793370112.000000 2573428064256.000000 2517046919168.000000 3275253350400.000000 
5670811205632.000000 3991382786048.000000 5129298247680.000000 5497689735168.000000 5302349463552.000000 4701677944832.000000 7030777053184.000000 7294425759744.000000 7310780399616.000000 7467348525056.000000 6769737728000.000000 7522787786752.000000 7392741294080.000000 7045999755264.000000 7119400075264.000000 7100702392320.000000 6744694063104.000000 6514617614336.000000 6919976648704.000000 7260520054784.000000 7286628024320.000000 5769666232320.000000 6044619636736.000000 6199110533120.000000 6256832020480.000000 5550393786368.000000 5205982707712.000000 6252441108480.000000 3691449417728.000000 3852341870592.000000 5043188662272.000000 5291196284928.000000 5194694262784.000000 4841825894400.000000 4631933485056.000000 4575918555136.000000 8020580368384.000000 8776371929088.000000 7850195681280.000000 8000917995520.000000 7779592962048.000000 8070901530624.000000 
1884660563968.000000 1306022117376.000000 1528600723456.000000 1557259485184.000000 1573406900224.000000 1423806431232.000000 2255114207232.000000 2250756325376.000000 2255928688640.000000 2204835250176.000000 1996159975424.000000 2350475640832.000000 2326703636480.000000 2212231118848.000000 2228194377728.000000 2273125859328.000000 2164799569920.000000 2253428883456.000000 2372704403456.000000 2262420946944.000000 2424436686848.000000 1853282975744.000000 1972761919488.000000 2002781208576.000000 2275758309376.000000 2016810106880.000000 1920382533632.000000 2327585751040.000000 1210172833792.000000 1212279685120.000000 2041519144960.000000 2085526831104.000000 2012058877952.000000 1661765156864.000000 1693160177664.000000 1673847242752.000000 2640855957504.000000 2728162492416.000000 2661993676800.000000 2507799265280.000000 2433738866688.000000 2630469287936.000000 
28430088192.000000 100606640128.000000 109516808192.000000 210522800128.000000 308750057472.000000 -78283137024.000000 -174992523264.000000 -118401425408.000000 -123360198656.000000 7031152640.000000 -28865431552.000000 -103575789568.000000 196968890368.000000 145914052608.000000 241744855040.000000 -179388973056.000000 -341596602368.000000 2803248384.000000 60525330432.000000 93264265216.000000 -9597524992.000000 -202681548800.000000 -54698110976.000000 -176374267904.000000 -90392690688.000000 131716333568.000000 229444370432.000000 -53518094336.000000 173922451456.000000 212561657856.000000 67698823168.000000 133888385024.000000 9954380800.000000 227280371712.000000 253726261248.000000 242776309760.000000 143134195712.000000 172869468160.000000 149919055872.000000 123371905024.000000 154540621824.000000 146580062208.000000 
-1859217915904.000000 -1225521364992.000000 -1613924794368.000000 -2422043049984.000000 -1870107508736.000000 -1738399416320.000000 -2813384196096.000000 -2767734439936.000000 -2911553978368.000000 -2807235346432.000000 -2350621130752.000000 -2598449709056.000000 -3198437556224.000000 -3300751310848.000000 -3150442921984.000000 -3116064309248.000000 -2944917831680.000000 -2448582770688.000000 -2602163765248.000000 -2863650832384.000000 -2648881233920.000000 -2755466887168.000000 -2749490266112.000000 -2198662283264.000000 -2678528409600.000000 -2185003663360.000000 -2032662085632.000000 -2739919912960.000000 -1868897189888.000000 -1858348253184.000000 -1740867764224.000000 -1792038928384.000000 -1810986434560.000000 -1621121171456.000000 -1547362238464.000000 -1571589324800.000000 -2852107059200.000000 -3315824852992.000000 -2769911545856.000000 -3700040663040.000000 -3390487134208.000000 -2917898387456.000000 
-2479858384896.000000 -1888607666176.000000 -2375545257984.000000 -2721758314496.000000 -2482822184960.000000 -1993963339776.000000 -3422468177920.000000 -3337246212096.000000 -3375810740224.000000 -3336209694720.000000 -3106919153664.000000 -3015135723520.000000 -3585091305472.000000 -3257842794496.000000 -3438144389120.000000 -3554773041152.000000 -3472306995200.000000 -2963170131968.000000 -3150919499776.000000 -3489409531904.000000 -3165966041088.000000 -2688107413504.000000 -2714345144320.000000 -2410262822912.000000 -3239488258048.000000 -3029285470208.000000 -2939900919808.000000 -3293778018304.000000 -1822148526080.000000 -1857435992064.000000 -1956049846272.000000 -2016793853952.000000 -1860059004928.000000 -1718014312448.000000 -1679948382208.000000 -1601902215168.000000 -3366068682752.000000 -3761794449408.000000 -3291552153600.000000 -3463209025536.000000 -3396703617024.000000 -3481271533568.000000 
-297242656768.000000 95841058816.000000 -217116311552.000000 341550465024.000000 -68656975872.000000 -58358292480.000000 433374199808.000000 520003485696.000000 600310808576.000000 553923379200.000000 490866704384.000000 551028588544.000000 532285030400.000000 643497394176.000000 480192364544.000000 577087209472.000000 729010470912.000000 348421652480.000000 573572448256.000000 490332160000.000000 596946190336.000000 241874993152.000000 182748790784.000000 -124096905216.000000 998670139392.000000 693334376448.000000 557779648512.000000 1008081502208.000000 355769778176.000000 385280278528.000000 640519045120.000000 706243067904.000000 769273626624.000000 733964140544.000000 622772748288.000000 611302637568.000000 206753054720.000000 251386609664.000000 175995125760.000000 504822071296.000000 450382528512.000000 205930840064.000000 
1538404253696.000000 1126384140288.000000 1504559235072.000000 1807880028160.000000 1660239478784.000000 1388502056960.000000 2056255569920.000000 2186450829312.000000 2164308705280.000000 2206550720512.000000 1876707901440.000000 2168420827136.000000 2178827026432.000000 2241355841536.000000 2135314530304.000000 2110251728896.000000 1980597141504.000000 1799921074176.000000 2068426915840.000000 2133191819264.000000 2154860511232.000000 1808804216832.000000 1822802182144.000000 1766794854400.000000 2052917297152.000000 1885175021568.000000 1757982883840.000000 2068306329600.000000 1307137409024.000000 1365683863552.000000 1467192049664.000000 1649391435776.000000 1552151216128.000000 1401738756096.000000 1338709114880.000000 1307558281216.000000 2236846440448.000000 2514638077952.000000 2219623841792.000000 2596088053760.000000 2444231966720.000000 2301499015168.000000 
3307397971968.000000 2492203794432.000000 2808228872192.000000 2682659536896.000000 2876947038208.000000 2585922895872.000000 3434702438400.000000 3559098941440.000000 3333759696896.000000 3545444646912.000000 3328330432512.000000 3630867415040.000000 3300114825216.000000 2995512410112.000000 3199656525824.000000 3586790522880.000000 3514549141504.000000 3107942825984.000000 3466528292864.000000 3555186180096.000000 3574274981888.000000 2497715634176.000000 2575070134272.000000 2858972610560.000000 3291643904000.000000 3081271771136.000000 2977080541184.000000 3310891827200.000000 1757071540224.000000 1909516533760.000000 2628892753920.000000 2946686779392.000000 2585050742784.000000 2339616587776.000000 2238750392320.000000 2183866744832.000000 3649264680960.000000 4018599624704.000000 3573335195648.000000 3228249096192.000000 3226083262464.000000 3642129121280.000000 
-4254792941568.000000 -3327954255872.000000 -3927357259776.000000 -3930966458368.000000 -3910517391360.000000 -3388744138752.000000 -5364407336960.000000 -5763129933824.000000 -5710708998144.000000 -5805060915200.000000 -5208238718976.000000 -5850993786880.000000 -5455910797312.000000 -5112658395136.000000 -5313379958784.000000 -5458221334528.000000 -5359216361472.000000 -4687875538944.000000 -5314107146240.000000 -5359743270912.000000 -5539740254208.000000 -3849575464960.000000 -3962011648000.000000 -4097524367360.000000 -5247410896896.000000 -4891168735232.000000 -4657732124672.000000 -5212008349696.000000 -2690576023552.000000 -2814855872512.000000 -3712090636288.000000 -3937727414272.000000 -3765546778624.000000 -3471373762560.000000 -3167154601984.000000 -3133112320000.000000 -5572395532288.000000 -6199445553152.000000 -5459003047936.000000 -5403607302144.000000 -5253594873856.000000 -5630775001088.000000 
-2314113384448.000000 -1546287710208.000000 -2181675220992.000000 -1757489659904.000000 -2129941233664.000000 -1752770281472.000000 -2703763963904.000000 -2818512781312.000000 -2795230986240.000000 -2817006501888.000000 -2532468588544.000000 -3062343925760.000000 -2621586800640.000000 -2427600240640.000000 -2356406386688.000000 -2816583925760.000000 -2593163575296.000000 -2602993451008.000000 -2716612427776.000000 -2900742897664.000000 -2858642833408.000000 -2140722036736.000000 -2287793340416.000000 -2444137857024.000000 -2624993624064.000000 -2269827301376.000000 -2360398839808.000000 -2544771530752.000000 -1326402240512.000000 -1287068581888.000000 -1856573145088.000000 -1880592744448.000000 -1817873743872.000000 -1674727391232.000000 -1555500105728.000000 -1602084405248.000000 -3064249974784.000000 -3182745616384.000000 -2992705372160.000000 -2767646883840.000000 -2583117955072.000000 -3018698784768.000000 
239475671040.000000 84554375168.000000 157884940288.000000 -307471384576.000000 -64612724736.000000 325444224.000000 14186370048.000000 4375394816.000000 -15833911296.000000 -40457408512.000000 25086568448.000000 139837652992.000000 -81401225216.000000 -107667718144.000000 -100608450560.000000 -83754278912.000000 -10404098048.000000 46432137216.000000 164049911808.000000 -55133151232.000000 154520403968.000000 -138022502400.000000 -97389993984.000000 81060593664.000000 181291696128.000000 310758998016.000000 283964407808.000000 134543974400.000000 -56946098176.000000 22259396608.000000 188204466176.000000 192721125376.000000 133679489024.000000 49094672384.000000 -36564082688.000000 30431064064.000000 276253212672.000000 141234896896.000000 319064637440.000000 -188238512128.000000 -110136672256.000000 282030768128.000000 
1426019581952.000000 1229008142336.000000 1523708461056.000000 1034221518848.000000 1418063904768.000000 1111387668480.000000 1752367104000.000000 2046059347968.000000 1977779224576.000000 2107837775872.000000 1773510983680.000000 2192973234176.000000 1809730764800.000000 1537449263104.000000 1580925714432.000000 1926784745472.000000 1561826951168.000000 1632003031040.000000 1809739808768.000000 1835685117952.000000 1901121634304.000000 1128444461056.000000 1137763024896.000000 1388482920448.000000 1921161494528.000000 1893671763968.000000 1659853340672.000000 1859173351424.000000 851351437312.000000 902158614528.000000 1192614690816.000000 1196374622208.000000 1160645443584.000000 947215204352.000000 859190198272.000000 885252358144.000000 2093598244864.000000 2182196363264.000000 2039628562432.000000 1831245185024.000000 1786156548096.000000 2152851439616.000000 
1720691720192.000000 1767075217408.000000 2116438589440.000000 1305919619072.000000 1808771579904.000000 1270607380480.000000 2598156632064.000000 2976554942464.000000 3112950562816.000000 3113524920320.000000 2555044691968.000000 3077523636224.000000 2807075700736.000000 2339675832320.000000 2543100362752.000000 3170151956480.000000 2959127347200.000000 2252870254592.000000 3090539610112.000000 2742534799360.000000 3120823533568.000000 1432418910208.000000 1371416166400.000000 1707338760192.000000 3442161483776.000000 3402460299264.000000 3225669074944.000000 3390737743872.000000 1160297447424.000000 1251305586688.000000 1415215972352.000000 1495020732416.000000 1431980605440.000000 1189684576256.000000 994981445632.000000 1012210991104.000000 2526332583936.000000 2655610732544.000000 2367205670912.000000 2034645729280.000000 2009528664064.000000 2619280195584.000000 
1071966257152.000000 773538512896.000000 1059543711744.000000 795768324096.000000 1061625528320.000000 872504164352.000000 1290346299392.000000 1333047984128.000000 1241011585024.000000 1278788108288.000000 1226863673344.000000 1255484555264.000000 873973153792.000000 733978558464.000000 848971628544.000000 1036202344448.000000 1131444699136.000000 887087759360.000000 1029032706048.000000 1020585967616.000000 970717593600.000000 836470898688.000000 832106725376.000000 761807306752.000000 1102043807744.000000 827666071552.000000 731627716608.000000 1038215938048.000000 517758189568.000000 562999328768.000000 725838659584.000000 731779104768.000000 772093247488.000000 668992077824.000000 456835072000.000000 580375478272.000000 949669265408.000000 970715234304.000000 1018145341440.000000 868354031616.000000 813095190528.000000 930345451520.000000 
-606621663232.000000 -354547597312.000000 -834360573952.000000 -1162215817216.000000 -714605068288.000000 -682027646976.000000 -1730938798080.000000 -1621381087232.000000 -1799262044160.000000 -1719236427776.000000 -1438486233088.000000 -1431232315392.000000 -1400715214848.000000 -1386501111808.000000 -1217397391360.000000 -1300798636032.000000 -1269319467008.000000 -1078289760256.000000 -1208964481024.000000 -1402781696000.000000 -1233686233088.000000 -1284430102528.000000 -1189648007168.000000 -998466191360.000000 -1327590408192.000000 -1239310139392.000000 -1135528902656.000000 -1443574448128.000000 -910285602816.000000 -1003837915136.000000 -497867227136.000000 -659015270400.000000 -680324235264.000000 -652713000960.000000 -585976053760.000000 -513096515584.000000 -1397481406464.000000 -1690391281664.000000 -1475815145472.000000 -2107774992384.000000 -1897135341568.000000 -1572856397824.000000 
502674391040.000000 221110140928.000000 467235307520.000000 783125446656.000000 600806260736.000000 505612173312.000000 906773397504.000000 816947331072.000000 885786083328.000000 938069786624.000000 649920380928.000000 881512284160.000000 907870011392.000000 1061325766656.000000 896581369856.000000 875582521344.000000 838208454656.000000 762074103808.000000 755930431488.000000 816990715904.000000 852851884032.000000 852335001600.000000 916464402432.000000 698736574464.000000 1162857414656.000000 703820398592.000000 688233644032.000000 1111328948224.000000 666686717952.000000 708201611264.000000 624529768448.000000 795500675072.000000 722977357824.000000 775781744640.000000 579158081536.000000 637101015040.000000 1005394329600.000000 1043478413312.000000 970799710208.000000 1389330432000.000000 1077191966720.000000 987522990080.000000 
-4293353799680.000000 -3603340984320.000000 -4342387834880.000000 -4721213964288.000000 -4596472217600.000000 -3641955844096.000000 -5858008760320.000000 -6168520949760.000000 -6114104573952.000000 -6291241566208.000000 -5613050920960.000000 -6273842544640.000000 -6074469449728.000000 -5922483077120.000000 -6028039028736.000000 -5992409989120.000000 -5728089669632.000000 -5102304755712.000000 -6094209417216.000000 -6323514114048.000000 -6165979201536.000000 -4415292440576.000000 -4482598436864.000000 -4477121724416.000000 -6141383802880.000000 -5877391687680.000000 -5752406671360.000000 -6118711492608.000000 -3421064396800.000000 -3537432739840.000000 -4012858671104.000000 -4413341040640.000000 -3980968067072.000000 -3879661731840.000000 -3604260061184.000000 -3589924716544.000000 -6113038172160.000000 -6888090501120.000000 -5948727885824.000000 -5960785985536.000000 -5803758059520.000000 -6101887614976.000000 
-2106589839360.000000 -1708249710592.000000 -1914499235840.000000 -2027594317824.000000 -2157186252800.000000 -1588797767680.000000 -2487494115328.000000 -2559742312448.000000 -2511806922752.000000 -2650585169920.000000 -2466618277888.000000 -2781362520064.000000 -2587536392192.000000 -2513494605824.000000 -2527516426240.000000 -2395922235392.000000 -2196632633344.000000 -2524515926016.000000 -2654643683328.000000 -2761467363328.000000 -2708119224320.000000 -1990227001344.000000 -2069768306688.000000 -2185726525440.000000 -2286144716800.000000 -2096293740544.000000 -2170328055808.000000 -2323951910912.000000 -1402675134464.000000 -1366567813120.000000 -2006883106816.000000 -2091913707520.000000 -1967362277376.000000 -1906270666752.000000 -1959505952768.000000 -1889466449920.000000 -3177356722176.000000 -3382837248000.000000 -3101750722560.000000 -2811358085120.000000 -2957938262016.000000 -3187620708352.000000 
-968027799552.000000 -684537151488.000000 -812943605760.000000 -928966049792.000000 -867311419392.000000 -768575799296.000000 -1320821194752.000000 -1275098300416.000000 -1303715381248.000000 -1281968177152.000000 -1338611728384.000000 -1418076094464.000000 -998629113856.000000 -946604212224.000000 -1038218297344.000000 -965689081856.000000 -1135588802560.000000 -968917909504.000000 -1150611357696.000000 -1178178420736.000000 -1099853594624.000000 -852104445952.000000 -884886470656.000000 -835020849152.000000 -1013671919616.000000 -940267995136.000000 -1103674474496.000000 -1007855206400.000000 -435873349632.000000 -427522621440.000000 -983849369600.000000 -986972618752.000000 -905059237888.000000 -965320179712.000000 -924674949120.000000 -930067054592.000000 -1111457267712.000000 -1192784166912.000000 -1049308823552.000000 -963690823680.000000 -1001728770048.000000 -1070402633728.000000 
731473313792.000000 542711906304.000000 974252802048.000000 642607022080.000000 775928938496.000000 589183451136.000000 1160144093184.000000 1268482310144.000000 1294844297216.000000 1320898396160.000000 1115209203712.000000 1244504653824.000000 1182886526976.000000 974773616640.000000 1013424914432.000000 1393489870848.000000 1207605002240.000000 966013550592.000000 1092896161792.000000 1070025080832.000000 1229349847040.000000 653799391232.000000 554350280704.000000 782330888192.000000 1274340835328.000000 1278927962112.000000 1337759236096.000000 1232218357760.000000 446946050048.000000 534494347264.000000 273927667712.000000 265961832448.000000 430357413888.000000 222347673600.000000 213937274880.000000 129594212352.000000 923548844032.000000 1008914989056.000000 873842540544.000000 857644859392.000000 737629831168.000000 1002596532224.000000 
590684684288.000000 754343280640.000000 630163701760.000000 293282873344.000000 624782671872.000000 478607998976.000000 810486595584.000000 1020936192000.000000 879271608320.000000 1014342156288.000000 800151830528.000000 1239780032512.000000 1005530710016.000000 808105541632.000000 875211063296.000000 1365654765568.000000 1390165622784.000000 811890769920.000000 1519594373120.000000 1327388426240.000000 1633440890880.000000 599237853184.000000 489987342336.000000 797796794368.000000 1739512086528.000000 1487577546752.000000 1402549567488.000000 1639822393344.000000 515905323008.000000 648385593344.000000 860784820224.000000 869723668480.000000 841486499840.000000 703126110208.000000 593655103488.000000 593120591872.000000 994444247040.000000 1085366009856.000000 950711943168.000000 837344362496.000000 878443298816.000000 985228509184.000000 
844432932864.000000 543230132224.000000 400858873856.000000 426648633344.000000 739468902400.000000 774500253696.000000 506111131648.000000 610911256576.000000 374257156096.000000 560270475264.000000 586691903488.000000 846838562816.000000 660812333056.000000 565207302144.000000 624224829440.000000 951128621056.000000 1102113144832.000000 892531703808.000000 829975691264.000000 818787254272.000000 967342489600.000000 647349272576.000000 796474671104.000000 1123297394688.000000 393861201920.000000 271680667648.000000 138690527232.000000 269728776192.000000 404009517056.000000 440710103040.000000 1164264603648.000000 1247369101312.000000 1069067993088.000000 981772664832.000000 909398966272.000000 927712870400.000000 981143912448.000000 997030952960.000000 983240015872.000000 645465702400.000000 661603811328.000000 856668635136.000000 
2080843235328.000000 1175827644416.000000 1609964584960.000000 2313308340224.000000 2062210170880.000000 1607066976256.000000 2434462646272.000000 2436404871168.000000 2488870109184.000000 2427292483584.000000 2251581292544.000000 2412739297280.000000 3071922667520.000000 2909428776960.000000 2984919957504.000000 2520708284416.000000 2383865708544.000000 2605112885248.000000 2400060964864.000000 2580502544384.000000 2470139396096.000000 2475470880768.000000 2512919199744.000000 2220034883584.000000 1947115323392.000000 1828601724928.000000 1743670476800.000000 1960495153152.000000 1382143623168.000000 1418779164672.000000 1811241369600.000000 1857261010944.000000 1952016498688.000000 1752608931840.000000 1648501325824.000000 1815268425728.000000 2955870994432.000000 3176156364800.000000 2830204141568.000000 3109303615488.000000 2879422988288.000000 2865528569856.000000 
2419438125056.000000 1871111127040.000000 2562727870464.000000 3121687822336.000000 2657409302528.000000 2077855318016.000000 3838843551744.000000 3881669754880.000000 4119016243200.000000 3959414849536.000000 3466795941888.000000 3617664008192.000000 3458372993024.000000 3463596998656.000000 3473918656512.000000 3608939331584.000000 3435710644224.000000 2654377607168.000000 3316798717952.000000 3483848671232.000000 3431302168576.000000 2727289552896.000000 2673399037952.000000 2595787636736.000000 3525799313408.000000 3096675352576.000000 2876805480448.000000 3674696843264.000000 2025300688896.000000 1983139545088.000000 1724078882816.000000 1934753005568.000000 1806473756672.000000 1759607259136.000000 1517625540608.000000 1541171970048.000000 3375340716032.000000 3952285319168.000000 3244344999936.000000 3844077518848.000000 3703967055872.000000 3495007617024.000000 
-288900120576.000000 62572535808.000000 -128615686144.000000 -862672453632.000000 -435117424640.000000 -454617726976.000000 -185971605504.000000 106177691648.000000 67162443776.000000 37267341312.000000 -231752843264.000000 174399864832.000000 154458144768.000000 -179817234432.000000 -140415270912.000000 454616809472.000000 403329646592.000000 326427312128.000000 570078789632.000000 875321728.000000 490140827648.000000 -415949684736.000000 -460278890496.000000 -148225048576.000000 1070956019712.000000 973987971072.000000 759600971776.000000 858822082560.000000 127566290944.000000 228797562880.000000 360646934528.000000 443200143360.000000 312005328896.000000 80465870848.000000 -66116820992.000000 20077287424.000000 -55599808512.000000 -141537656832.000000 -55942336512.000000 -407104290816.000000 -394686726144.000000 23964067840.000000 
-3043684777984.000000 -2023884849152.000000 -2690562916352.000000 -2648083529728.000000 -2745386663936.000000 -2287418212352.000000 -3706656653312.000000 -3921519312896.000000 -3954980945920.000000 -3967268421632.000000 -3571473186816.000000 -4006619119616.000000 -3772254781440.000000 -3522560524288.000000 -3623599996928.000000 -3569444454400.000000 -3363552886784.000000 -3506543263744.000000 -3761529159680.000000 -3813783371776.000000 -3807184683008.000000 -2879327305728.000000 -3047948288000.000000 -3198494965760.000000 -3276207816704.000000 -2963076022272.000000 -2822842875904.000000 -3241058500608.000000 -1746630082560.000000 -1795776446464.000000 -2699647516672.000000 -2716689760256.000000 -2798564933632.000000 -2376854405120.000000 -2411774083072.000000 -2395646459904.000000 -4452409409536.000000 -4565882634240.000000 -4318352900096.000000 -4028552445952.000000 -4039658438656.000000 -4443887108096.000000 
-812851396608.000000 -556081348608.000000 -668210167808.000000 -964288380928.000000 -663828430848.000000 -635702607872.000000 -770651979776.000000 -672459980800.000000 -617244852224.000000 -629807579136.000000 -699159150592.000000 -369748115456.000000 -1035446190080.000000 -760695488512.000000 -1009573494784.000000 -939756027904.000000 -1051554742272.000000 -751564095488.000000 -783962144768.000000 -747317362688.000000 -715376230400.000000 -491052793856.000000 -476201910272.000000 -731268775936.000000 -478209900544.000000 -658743164928.000000 -550582222848.000000 -574189338624.000000 -470133833728.000000 -490374692864.000000 -283793719296.000000 -414249582592.000000 -283066433536.000000 -235955732480.000000 -308856979456.000000 -318622466048.000000 -699898593280.000000 -758546300928.000000 -608089014272.000000 -508783919104.000000 -512069533696.000000 -672033144832.000000 
-1495771774976.000000 -1329351098368.000000 -1409440153600.000000 -1347259072512.000000 -1515211849728.000000 -1133670170624.000000 -2114135654400.000000 -2448512253952.000000 -2437262344192.000000 -2547817644032.000000 -2055891058688.000000 -2464261603328.000000 -2778759954432.000000 -2602835378176.000000 -2667055415296.000000 -2969634340864.000000 -2896647684096.000000 -2051003383808.000000 -2949689638912.000000 -2798633091072.000000 -2961696358400.000000 -1722640891904.000000 -1747463176192.000000 -1947945009152.000000 -3018868916224.000000 -2739390644224.000000 -2449438670848.000000 -2962796314624.000000 -1449049063424.000000 -1573417648128.000000 -1592525324288.000000 -1793740898304.000000 -1606343852032.000000 -1428086325248.000000 -1268766212096.000000 -1302852272128.000000 -2344063336448.000000 -2526753849344.000000 -2236115582976.000000 -2253904150528.000000 -2151956611072.000000 -2402205564928.000000 
-4521416720384.000000 -3456726728704.000000 -3926184951808.000000 -4371633930240.000000 -4515515334656.000000 -3683433054208.000000 -5846575087616.000000 -5930289201152.000000 -5928664956928.000000 -6020284284928.000000 -5639205027840.000000 -6279923761152.000000 -6057228763136.000000 -6012402139136.000000 -6051490955264.000000 -5851581513728.000000 -5578409639936.000000 -5462178660352.000000 -5882061520896.000000 -6128872718336.000000 -6116141957120.000000 -5091615047680.000000 -5213521444864.000000 -4886979149824.000000 -5286517538816.000000 -4721553178624.000000 -4689975836672.000000 -5340317876224.000000 -2923766743040.000000 -2947537960960.000000 -4519983316992.000000 -4640386056192.000000 -4592152608768.000000 -4183877484544.000000 -3992711856128.000000 -4011186192384.000000 -6580610269184.000000 -7349768028160.000000 -6493523935232.000000 -6491350237184.000000 -6435741106176.000000 -6607273459712.000000 
-2575555100672.000000 -2204286058496.000000 -2630837862400.000000 -2141608607744.000000 -2349270827008.000000 -2098922520576.000000 -3219227148288.000000 -3638572089344.000000 -3541315354624.000000 -3668859682816.000000 -3116134563840.000000 -3748986355712.000000 -3321593593856.000000 -3024929685504.000000 -3132866953216.000000 -3397887459328.000000 -3149725433856.000000 -2973404233728.000000 -3567287271424.000000 -3549596483584.000000 -3622833225728.000000 -2212544380928.000000 -2263883972608.000000 -2546263392256.000000 -3618877472768.000000 -3579682226176.000000 -3276525273088.000000 -3650471591936.000000 -1749204336640.000000 -1946695630848.000000 -2442863575040.000000 -2546797379584.000000 -2469068537856.000000 -2047257214976.000000 -1993760833536.000000 -2024127201280.000000 -3587807379456.000000 -3867624079360.000000 -3503816966144.000000 -3254778068992.000000 -3082421272576.000000 -3635157925888.000000 
4687563587584.000000 3662343831552.000000 4550608027648.000000 4804410081280.000000 4729999982592.000000 3932947480576.000000 6456614060032.000000 6664592293888.000000 6565318885376.000000 6781295656960.000000 6054924517376.000000 6690884812800.000000 6418918801408.000000 6063868346368.000000 6179119955968.000000 6209219330048.000000 6039514120192.000000 5264597057536.000000 5797189255168.000000 6208080052224.000000 6025509863424.000000 4832682835968.000000 4975528771584.000000 4828687761408.000000 5716629258240.000000 5351817084928.000000 5118624792576.000000 5769889579008.000000 3112101216256.000000 3267361767424.000000 4268123226112.000000 4551874707456.000000 4228280221696.000000 3875636510720.000000 3476971061248.000000 3594061348864.000000 6513183162368.000000 7261129277440.000000 6285524729856.000000 6577835737088.000000 6428710928384.000000 6584729075712.000000 
